Language model created by QuickLM on Mon Feb  3 03:32:07 EST 2025
Copyright (c) 1996-2010 Carnegie Mellon University and Alexander I. Rudnicky

The model is in standard ARPA format, designed by Doug Paul while he was at MITRE.

The code that was used to produce this language model is available in Open Source.
Please visit http://www.speech.cs.cmu.edu/tools/ for more information

The (fixed) discount mass is 0.5. The backoffs are computed using the ratio method.
This model based on a corpus of 2 sentences and 5 words

\data\
ngram 1=5
ngram 2=5
ngram 3=4

\1-grams:
-0.9031 </s> -0.3010
-0.9031 <s> -0.2430
-0.9031 MUSIC -0.2430
-1.2041 PLAY -0.2430
-1.2041 STOP -0.2430

\2-grams:
-0.6021 <s> PLAY 0.0000
-0.6021 <s> STOP 0.0000
-0.3010 MUSIC </s> -0.3010
-0.3010 PLAY MUSIC 0.0000
-0.3010 STOP MUSIC 0.0000

\3-grams:
-0.3010 <s> PLAY MUSIC
-0.3010 <s> STOP MUSIC
-0.3010 PLAY MUSIC </s>
-0.3010 STOP MUSIC </s>

\end\