Language model created by QuickLM on Mon Mar 10 13:59:34 EDT 2025
Copyright (c) 1996-2010 Carnegie Mellon University and Alexander I. Rudnicky

The model is in standard ARPA format, designed by Doug Paul while he was at MITRE.

The code that was used to produce this language model is available in Open Source.
Please visit http://www.speech.cs.cmu.edu/tools/ for more information

The (fixed) discount mass is 0.5. The backoffs are computed using the ratio method.
This model based on a corpus of 5 sentences and 10 words

\data\
ngram 1=10
ngram 2=13
ngram 3=10

\1-grams:
-0.9031 </s> -0.3010
-0.9031 <s> -0.2430
-1.6021 BATTERY -0.2900
-1.3010 BRIGHTNESS -0.2430
-1.6021 DECREASE -0.2788
-1.6021 INCREASE -0.2788
-1.3010 PC -0.2430
-1.6021 PERCENTAGE -0.2430
-1.6021 RESTART -0.2788
-1.6021 SHUTDOWN -0.2788

\2-grams:
-1.0000 <s> BATTERY 0.0000
-1.0000 <s> DECREASE 0.0000
-1.0000 <s> INCREASE 0.0000
-1.0000 <s> RESTART 0.0000
-1.0000 <s> SHUTDOWN 0.0000
-0.3010 BATTERY PERCENTAGE 0.0000
-0.3010 BRIGHTNESS </s> -0.3010
-0.3010 DECREASE BRIGHTNESS 0.0000
-0.3010 INCREASE BRIGHTNESS 0.0000
-0.3010 PC </s> -0.3010
-0.3010 PERCENTAGE </s> -0.3010
-0.3010 RESTART PC 0.0000
-0.3010 SHUTDOWN PC 0.0000

\3-grams:
-0.3010 <s> BATTERY PERCENTAGE
-0.3010 <s> DECREASE BRIGHTNESS
-0.3010 <s> INCREASE BRIGHTNESS
-0.3010 <s> RESTART PC
-0.3010 <s> SHUTDOWN PC
-0.3010 BATTERY PERCENTAGE </s>
-0.3010 DECREASE BRIGHTNESS </s>
-0.3010 INCREASE BRIGHTNESS </s>
-0.3010 RESTART PC </s>
-0.3010 SHUTDOWN PC </s>

\end\