Language model created by QuickLM on Wed Feb 19 13:19:03 EST 2025
Copyright (c) 1996-2010 Carnegie Mellon University and Alexander I. Rudnicky

The model is in standard ARPA format, designed by Doug Paul while he was at MITRE.

The code that was used to produce this language model is available in Open Source.
Please visit http://www.speech.cs.cmu.edu/tools/ for more information

The (fixed) discount mass is 0.5. The backoffs are computed using the ratio method.
This model based on a corpus of 10 sentences and 14 words

\data\
ngram 1=14
ngram 2=22
ngram 3=21

\1-grams:
-0.9345 </s> -0.3010
-0.9345 <s> -0.2416
-1.9345 CLOSE -0.2473
-1.9345 EXIT -0.2908
-1.9345 FORWARD -0.2473
-1.6335 FULL -0.2908
-1.9345 MUTE -0.2473
-1.9345 OPEN -0.2473
-1.9345 PAUSE -0.2473
-1.9345 RESUME -0.2473
-1.9345 REWIND -0.2473
-1.6335 SCREEN -0.2473
-1.9345 UNMUTE -0.2473
-0.9345 YOUTUBE -0.2473

\2-grams:
-1.3010 <s> CLOSE 0.0000
-1.3010 <s> EXIT 0.0000
-1.3010 <s> FORWARD 0.0000
-1.3010 <s> FULL 0.0000
-1.3010 <s> MUTE 0.0000
-1.3010 <s> OPEN 0.0000
-1.3010 <s> PAUSE 0.0000
-1.3010 <s> RESUME 0.0000
-1.3010 <s> REWIND 0.0000
-1.3010 <s> UNMUTE 0.0000
-0.3010 CLOSE YOUTUBE 0.0000
-0.3010 EXIT FULL 0.0000
-0.3010 FORWARD YOUTUBE 0.0000
-0.3010 FULL SCREEN 0.0000
-0.3010 MUTE YOUTUBE 0.0000
-0.3010 OPEN YOUTUBE 0.0000
-0.3010 PAUSE YOUTUBE 0.0000
-0.3010 RESUME YOUTUBE 0.0000
-0.3010 REWIND YOUTUBE 0.0000
-0.3010 SCREEN YOUTUBE 0.0000
-0.3010 UNMUTE YOUTUBE 0.0000
-0.3010 YOUTUBE </s> -0.3010

\3-grams:
-0.3010 <s> CLOSE YOUTUBE
-0.3010 <s> EXIT FULL
-0.3010 <s> FORWARD YOUTUBE
-0.3010 <s> FULL SCREEN
-0.3010 <s> MUTE YOUTUBE
-0.3010 <s> OPEN YOUTUBE
-0.3010 <s> PAUSE YOUTUBE
-0.3010 <s> RESUME YOUTUBE
-0.3010 <s> REWIND YOUTUBE
-0.3010 <s> UNMUTE YOUTUBE
-0.3010 CLOSE YOUTUBE </s>
-0.3010 EXIT FULL SCREEN
-0.3010 FORWARD YOUTUBE </s>
-0.3010 FULL SCREEN YOUTUBE
-0.3010 MUTE YOUTUBE </s>
-0.3010 OPEN YOUTUBE </s>
-0.3010 PAUSE YOUTUBE </s>
-0.3010 RESUME YOUTUBE </s>
-0.3010 REWIND YOUTUBE </s>
-0.3010 SCREEN YOUTUBE </s>
-0.3010 UNMUTE YOUTUBE </s>

\end\