Language model created by QuickLM on Wed May 14 02:22:36 EDT 2025
Copyright (c) 1996-2010 Carnegie Mellon University and Alexander I. Rudnicky

The model is in standard ARPA format, designed by Doug Paul while he was at MITRE.

The code that was used to produce this language model is available in Open Source.
Please visit http://www.speech.cs.cmu.edu/tools/ for more information

The (fixed) discount mass is 0.5. The backoffs are computed using the ratio method.
This model based on a corpus of 12 sentences and 11 words

\data\
ngram 1=11
ngram 2=19
ngram 3=23

\1-grams:
-0.9542 </s> -0.3010
-0.9542 <s> -0.2499
-1.7324 CAMERA -0.2499
-1.2553 CLOSE -0.2499
-1.7324 EXCEL -0.2499
-1.2553 MS -0.2762
-1.7324 NOTEPAD -0.2499
-1.7324 OFFICE -0.2499
-1.2553 OPEN -0.2499
-1.7324 SETTINGS -0.2499
-1.7324 WORD -0.2499

\2-grams:
-0.6021 <s> CLOSE 0.0000
-0.6021 <s> OPEN 0.0000
-0.3010 CAMERA </s> -0.3010
-1.0792 CLOSE CAMERA 0.0000
-0.6021 CLOSE MS 0.0000
-1.0792 CLOSE NOTEPAD 0.0000
-1.0792 CLOSE SETTINGS 0.0000
-0.3010 EXCEL </s> -0.3010
-0.7782 MS EXCEL 0.0000
-0.7782 MS OFFICE 0.0000
-0.7782 MS WORD 0.0000
-0.3010 NOTEPAD </s> -0.3010
-0.3010 OFFICE </s> -0.3010
-1.0792 OPEN CAMERA 0.0000
-0.6021 OPEN MS 0.0000
-1.0792 OPEN NOTEPAD 0.0000
-1.0792 OPEN SETTINGS 0.0000
-0.3010 SETTINGS </s> -0.3010
-0.3010 WORD </s> -0.3010

\3-grams:
-1.0792 <s> CLOSE CAMERA
-0.6021 <s> CLOSE MS
-1.0792 <s> CLOSE NOTEPAD
-1.0792 <s> CLOSE SETTINGS
-1.0792 <s> OPEN CAMERA
-0.6021 <s> OPEN MS
-1.0792 <s> OPEN NOTEPAD
-1.0792 <s> OPEN SETTINGS
-0.3010 CLOSE CAMERA </s>
-0.7782 CLOSE MS EXCEL
-0.7782 CLOSE MS OFFICE
-0.7782 CLOSE MS WORD
-0.3010 CLOSE NOTEPAD </s>
-0.3010 CLOSE SETTINGS </s>
-0.3010 MS EXCEL </s>
-0.3010 MS OFFICE </s>
-0.3010 MS WORD </s>
-0.3010 OPEN CAMERA </s>
-0.7782 OPEN MS EXCEL
-0.7782 OPEN MS OFFICE
-0.7782 OPEN MS WORD
-0.3010 OPEN NOTEPAD </s>
-0.3010 OPEN SETTINGS </s>

\end\